-2.02396206452488636
-0.728771995158207453
-1.17722503389570754
-2.02689804641289584
-1.53840163425016563
-2.02370216649131285
-2.35030629485699905
-2.86009274518074053
2.79572055709296574
1.55446556413164383
-0.850866394596806241
2.62856402093277675
2.62914395037918247
1.37480351752745267
2.48757272683578146
2.84032865639548016
-4.38425124407938682
0.239602058150900826
2.39578843532217478
-3.11667151757070426
-1.40182466640059844
0.409238315308710798
-7.07795558979191863
0.25651575408964955
-0.329810013915160738
4.92332611536875664
1.89853959214483825
9.15084491331093552
-2.24084196161925808
-0.307779232342026976
2.26249767974694116
-4.54963511076449478
-3.00769590706498713
0.183243900428001677
1.18164354550028117
-2.76324136483330518
-2.3292018162299275
-3.53364351358726125
-3.31992763894403664
-1.31076335482535034
-5.94681188062599908
2.01625861191865274
-5.30204719042019956
-6.16624342891804389
-7.59128514310431957
3.22186119510528091
-5.70655338188592065
-5.2310517976331905
0.789020988296828318
1.64144124241163847
0.386779994888720446
3.61353203384909705
0.111766613679973939
1.90449670937895132
5.0953719363697596
2.33929784624200598
8.01181254529792319
8.44820295235669505
-0.704468748795714417
10.5799651984339391
6.27330231936756455
6.30282926178669545
8.80931946807007726
7.10828579511868153
-2.94208187840387092
-1.07759726353061791
-0.524544969092249902
-1.78566109453515254
-0.630096964979813379
0.447696843846957016
-3.00254931134028391
1.21681586909887107
-2.00947525980633968
-0.187139151033554302
-0.316404209247647228
-1.32243975433930627
1.28286249725154788
-3.77160752961493717
-0.773355464406345505
-0.929421021570387307
-2.26136376801481775
-2.2681126979233559
-1.53359419747431791
-1.61430997947592036
-2.09845739510902218
-2.32322460377093698
-1.58525143846004157
-3.20579898406661634
0.553875714941391206
0.442822520026723288
-0.956226343152146163
-0.309386296024924456
0.322899038268590455
0.704143259150989964
0.267865725619470363
-0.411319880867032195
-0.68791080451886677
0.384282701341624455
0.387120756374653652
-0.32780011833437106
-0.212180100532502497
0.390673368800200205
0.0671654738630204917
-0.264395405532993955
0.0927637654219574115
0.0388959543483685111
-0.224299382494919181
0.296498136941198531
0.628877619454563108
0.537225087000875901
0.0149346917664717419
0.824149147434998341
-0.890797887992328175
-0.000819408788526550247
0.370431730245532387
-1.02266921111515074
-0.138659454884769412
-0.684824357713682552
-0.0352180299566472732
0.0109464891429886108
0.864011813537184259
-0.696239278076772217
-0.432297732363314369
-0.199874665860811762
-0.00166276126119925191
0.0209928891063305943
0.0590583284548752557
0.235314594785350106
0.198688120485697978
0.0248283602130265069
-0.665339424503121002
0.242396395312558854
-0.578135707314253344
0.0676493387348728326
0.281167791542295598
0.287262096275091416
-0.140875623264867939
-0.3163476510871992
0.107190970220853485
-0.556038170424065781
0.10407648601782038
-0.0869363268114971277
0.484221509544070006
0.603920726210239622
-0.41193868578752435
-0.141579875274590705
1.28997088542983285
0.1209669458562843
-0.0703502895877976681
-0.494998295410436662
-0.38305127591280802
0.0627875131859002289
-0.109828661279467291
-0.862627011985553138
0.0394255286210265718
0.0335125939843553405
-0.751429780982852402
0.00189502635297348135
-1.17122037911593369
-0.209594626249724414
0.498666277889386111
-0.534068808107836857
-0.010096711408816619
0.000521347517819474278
-0.215577929925268502
0.899570615919300653
0.420226820626144026
0.193601504680117303
-0.485750574957783066
0.650828149456251337
-0.122869065711784867
-0.673395022319238423
0.399010518823868676
-0.478604318807687112
-0.363164511158836245
0.664024419322469917
-0.450096458151633405
0.0078727893916472648
-0.488013244797268542
0.0380507001296277597
-0.24096905336664784
0.170483214068595818
0.449443383291265597
-0.49527395986055478
-0.212509983619075304
-0.0750430215299256048
0.838737996962599652
0.159204938750069497
-2.49207752162053886
-1.15501018736063266
6.95239817407171135
0.363343373624640809
0.215253312954842513
-2.16230702310920497
-2.2979029452883486
-0.0366483359395115352
-0.0413882415332328668
0.57155527895756475
