0.779315565487983419
0.933935171243385431
1.4851114685516309
1.30489688928850556
-0.0732847970440727581
1.79757272667458956
-0.0884679001701856454
1.11616445355469085
-1.16431253117919242
2.05609898411292402
1.73324719415412476
2.16560842726729019
0.0531073675603534606
1.94764648451092603
0.112233678617831886
2.38779644191837326
-0.302906087531544632
1.80646557429566879
2.76950743731933358
1.39642317185165843
-0.177230002040249884
1.12693585962597109
-0.40450667070528884
2.54538506433984546
-0.0735302797778497469
2.08015781965318425
0.804930031861065154
2.70338168401499113
0.632085211402209635
0.105677461588401397
-0.729721914957088602
0.553962726324718657
-1.1386404786923765
-0.356299852562519337
1.31577902479379683
-1.48240975199542024
-0.609060474597595825
0.282912920782522725
-0.815194542223687812
0.611499585117493583
-0.0230208958061695716
0.551907801158851963
-1.49886508276921426
0.19406135052935386
0.540570406274386017
-0.0781149597942959323
-0.153455409068592563
-1.37086368360017596
-1.99808533933420751
-1.68212259190524605
1.3873427027114893
-1.04487184300672742
0.870056869308719949
0.0397196660965901879
-2.24327433619763905
0.594206845152566721
1.63651222566815502
2.66194541080157299
-1.80911757566668352
1.56268654702329113
-0.326122429794971913
-0.384462438303265375
0.266328339807702097
-0.912017383212621935
0.369142569604088755
-7.41940323426042969
-7.0306739487117369
-7.28663878188545677
0.264152081648068304
-6.82331951400584469
0.737406757023241877
-6.12647710999465733
0.967614316967997379
0.412858823667612562
0.438412556473368242
1.01386057543259933
0.373742361316740435
1.47146931335181441
0.169608712118317656
0.425083249179170064
-0.481198739584613622
-1.0318091993811247
0.324055642510473751
-1.92682005311581639
1.3558802154156353
0.330082348303515571
-0.911666566163220393
-1.22655777175559844
-0.625421529508016771
0.564526798084793446
-0.416689429113805798
0.634198984189127124
-0.0399438888812830087
-0.442947736237673029
-0.352121564480801841
-0.311610608068128736
-0.53873934681080915
0.922944036034860749
0.754405109779901051
-0.669036719997515794
0.0843480098175900528
0.919910881464686803
0.491799441016948446
0.349004660511144316
0.231756454928795902
-0.0576944162912556222
-0.0570218732071934506
-0.122756972341314302
-0.177927445592637595
0.0150011161627359585
-0.470733162800705707
-0.517537276427558535
0.905014558369764188
0.239781401147361406
-0.18393843550512684
0.203724188529436884
-0.265958506476618894
-0.311683974691510435
1.02728712692671986
0.921838399383927309
0.209800300995819061
0.511589138771637364
-0.513196671946071992
0.81560179844910119
-0.0826061183622287254
-0.0638785194902328074
0.537023924737591307
-0.577539749116712686
-0.597299344517668751
0.77208303038402315
0.500774210964770927
-0.931750418515390311
-0.208115750487936069
0.107254209342212053
0.10543480297517574
-0.167852178659528145
0.505206754612678388
-0.22223234750670845
-0.101694592227932354
0.547201721379974249
1.12149019678971151
0.358437270183298629
0.52979990182737946
-0.355282914791869464
0.313211039837378191
-0.543009644453908424
-0.230208708074454982
-0.467429115532831896
-0.257378873705831124
0.506082843057711007
0.85905787407186085
0.284052129640758322
0.913318819330733778
0.71825828464424557
0.854181142385442294
-0.541015006606410775
-0.32711363086198425
0.431257036981342101
-0.488230551114177402
0.765761001495560145
-0.981816928116604482
-0.802051302255571641
0.699151185976998657
0.952584837712247223
-0.307472616446444191
-0.046959915422486273
0.0204414131831120623
0.503936217381497742
-0.472428710200164914
-0.195413262278601951
-0.588063500027599884
-0.380614265564758136
-0.16794988188977622
0.474543465419964172
0.984054260117727786
0.786415283713241431
-0.94402750442805683
0.575417709162415747
0.297010322980916897
-0.262297689728257621
-0.281367532667599618
-0.202331448280846954
0.607040947210391812
0.36351289783801205
0.645878137436211142
0.899143856923432794
0.0381487323939899564
0.417995711425827199
0.324570991011992604
-0.145134366681498539
-0.210653762840517511
0.55036270844242996
-0.738701638894167845
-0.984492153322576891
0.65765236505936453
-0.0110751279875280287
-0.0753840493191870742
-0.962965171071451853
4
0.194544248854280372
0.0268434477577959192
