0.568043054176140427
-0.834985350081439925
-1.19164458134646378
0.109344651046979741
-1.04875662574917539
0.363954797085305426
0.435942371323985944
-0.6790624921015187
0.0403264726957332439
0.818716317145606221
1.45398366444519556
-0.221039976697372298
1.43277487545010818
-0.0470444244636849043
0.27226917777514692
-0.0319011683529710002
-0.658934783413941183
0.0478420223847154102
-0.761713192820970053
0.735508240539589964
0.558501977268220484
-0.622312031137021049
1.11901143805254621
0.218961814943517658
-0.628133193600917017
1.2844505148428722
-0.22816205772820719
0.777164847851840035
0.874747164860728454
1.38824190211230358
-1.10706202386812702
-0.413049337594396881
-0.74753726065879833
-0.546541990508190301
-1.16835704927685691
-0.323317012560355388
0.134572398865056453
-1.24319885887103898
-0.428166801380283568
-0.61828777003780222
-0.0684265158188254452
-0.692087052399665947
0.677872327791345097
2.1421827570937606
0.240660926758972438
-0.612485798822963057
-1.43778410586073591
-0.355819273050228424
-0.391044414478546487
-0.977876920322744647
-0.0118131461811249294
-0.946529101649374205
-0.449396293275218739
0.262488972634329465
-1.10296863313235693
-1.39901105397950531
-0.739678899261138834
1.24846170735546425
0.0726595806344582373
0.927927787824376238
-1.03116628472966876
1.06819922271741641
-0.340226132931503167
0.633942564734226388
0.95712432547163262
0.0750582541033472661
0.793023545275307606
0.310350843944276422
-0.225418073809861452
0.982421377479199887
1.23615189024368188
-0.0153030810569600769
0.298786214586645449
0.361674725871476477
0.395523396152968498
0.551316721896236484
-2.03315601228267973
-0.537622394338432175
0.569964613844187284
-1.2913457436977529
-0.390257133275435986
-1.61164946006661358
0.116875560270489856
-1.08682496830117525
-0.573093700513628956
0.0136395370369990915
-0.998200308421406945
0.604204672065271065
-0.466942890879646799
0.1716815819561332
0.303849899119759126
0.717539948516930703
0.597461111412779244
-0.529767346707388898
0.433210602710919546
-1.05070548813882803
-0.0523974414971582758
0.877772058059508198
-0.231077836010025683
-0.400030090776961444
-0.213164416241975546
0.504093926196476194
0.180822209783039395
-0.727168993290704058
-0.0687481543907500769
0.174018619128717744
-0.197357690692465809
-0.355577126269848498
0.7091206070321876
0.615500744617002327
-0.884674048119441836
0.420000245665160588
0.650049788383902927
-0.164725477904862749
-0.218322713604232777
0.714318409043212088
0.494118245390184063
-0.246442289017068827
-1.25925246516011025
0.353850593648679657
0.597204122160014839
-0.00872762376148556764
-0.105929433359816277
0.102409171515551761
-0.321978788039190222
-0.0783100291857092151
-0.056403196783553905
-0.0834051935068280542
0.136002638479439414
0.122572545275569642
-0.0034699403089509329
-0.0716294894822213368
-0.510017848997814882
-0.0623263428776043432
-0.0735472570273248
0.373892491345090672
-0.611774290851209823
0.0344227377024525077
0.0429545781035219204
0.22456965567702411
-0.370172790225515747
-0.365826664067261054
0.118742801085410604
0.681847105469486015
-0.932568378591361435
-0.282938423960991337
0.369144275649990861
0.402109881347525566
0.0504239952960517726
-0.0335313944752808693
-0.46473529130332375
0.560559018992407343
0.428432884155748317
-0.473468238323472013
0.407630289944865942
-0.308513122160566422
0.0181043345431818777
0.139778052784892776
-0.187499760556573136
0.0179762793554224531
-0.92570584761324759
-0.355548220981674268
0.415544129811261376
-0.384950529050874957
-0.659819163115559104
0.75160457961183802
-0.848970977457716436
-0.442804262553817218
-0.786987995874031898
0.502068431615139144
0.660256740554261867
-0.554607726445443872
-0.0342414317573712587
0.410561046212561509
-0.0761783822776890274
0.904943927547526061
-0.937879867734275563
0.0243388635223688518
0.160063935120229456
0.0377555024916662388
-0.0259219549517275896
-0.0108209732987886009
-0.658586144986395783
-0.0749158211220747605
-0.0311348060658091647
0.236938906220752421
-0.165370080134534775
-0.713955014782278186
0.473088500541535062
0.739860514015416082
-0.327464777365019277
0.749850666291539847
-0.75271979380245313
-0.337353447706271181
-0.0104520096201440229
-0.626496489479300145
0.945247665063139508
0.423399249150564705
